digraph Tree {
node [shape=box] ;
0 [label="X[2] <= -0.473\ngini = 0.5\nsamples = 12907\nvalue = [6453.5, 6453.5]"] ;
1 [label="X[8] <= -0.038\ngini = 0.415\nsamples = 83\nvalue = [71.013, 29.523]"] ;
0 -> 1 [labeldistance=2.5, labelangle=45, headlabel="True"] ;
2 [label="X[1] <= 0.831\ngini = 0.252\nsamples = 20\nvalue = [24.248, 4.218]"] ;
1 -> 2 ;
3 [label="X[5] <= -0.572\ngini = 0.167\nsamples = 15\nvalue = [20.784, 2.109]"] ;
2 -> 3 ;
4 [label="X[1] <= 0.249\ngini = 0.335\nsamples = 5\nvalue = [5.196, 1.406]"] ;
3 -> 4 ;
5 [label="X[8] <= -0.078\ngini = 0.21\nsamples = 4\nvalue = [5.196, 0.703]"] ;
4 -> 5 ;
6 [label="gini = 0.0\nsamples = 3\nvalue = [5.196, 0.0]"] ;
5 -> 6 ;
7 [label="gini = -0.0\nsamples = 1\nvalue = [0.0, 0.703]"] ;
5 -> 7 ;
8 [label="gini = -0.0\nsamples = 1\nvalue = [0.0, 0.703]"] ;
4 -> 8 ;
9 [label="X[0] <= 2.636\ngini = 0.083\nsamples = 10\nvalue = [15.588, 0.703]"] ;
3 -> 9 ;
10 [label="gini = -0.0\nsamples = 8\nvalue = [13.856, 0.0]"] ;
9 -> 10 ;
11 [label="X[4] <= -0.081\ngini = 0.411\nsamples = 2\nvalue = [1.732, 0.703]"] ;
9 -> 11 ;
12 [label="gini = 0.0\nsamples = 1\nvalue = [0.0, 0.703]"] ;
11 -> 12 ;
13 [label="gini = 0.0\nsamples = 1\nvalue = [1.732, 0.0]"] ;
11 -> 13 ;
14 [label="X[4] <= -0.081\ngini = 0.47\nsamples = 5\nvalue = [3.464, 2.109]"] ;
2 -> 14 ;
15 [label="gini = 0.0\nsamples = 2\nvalue = [3.464, 0.0]"] ;
14 -> 15 ;
16 [label="gini = 0.0\nsamples = 3\nvalue = [0.0, 2.109]"] ;
14 -> 16 ;
17 [label="X[2] <= -0.475\ngini = 0.456\nsamples = 63\nvalue = [46.764, 25.305]"] ;
1 -> 17 ;
18 [label="X[1] <= 0.831\ngini = 0.479\nsamples = 19\nvalue = [6.928, 10.544]"] ;
17 -> 18 ;
19 [label="X[5] <= -0.884\ngini = 0.385\nsamples = 16\nvalue = [3.464, 9.841]"] ;
18 -> 19 ;
20 [label="X[3] <= -0.285\ngini = 0.47\nsamples = 5\nvalue = [3.464, 2.109]"] ;
19 -> 20 ;
21 [label="gini = 0.0\nsamples = 3\nvalue = [0.0, 2.109]"] ;
20 -> 21 ;
22 [label="gini = 0.0\nsamples = 2\nvalue = [3.464, 0.0]"] ;
20 -> 22 ;
23 [label="gini = 0.0\nsamples = 11\nvalue = [0.0, 7.732]"] ;
19 -> 23 ;
24 [label="X[8] <= 0.787\ngini = 0.28\nsamples = 3\nvalue = [3.464, 0.703]"] ;
18 -> 24 ;
25 [label="gini = -0.0\nsamples = 2\nvalue = [3.464, 0.0]"] ;
24 -> 25 ;
26 [label="gini = 0.0\nsamples = 1\nvalue = [0.0, 0.703]"] ;
24 -> 26 ;
27 [label="X[8] <= 0.079\ngini = 0.395\nsamples = 44\nvalue = [39.836, 14.761]"] ;
17 -> 27 ;
28 [label="X[5] <= -1.055\ngini = 0.442\nsamples = 6\nvalue = [1.732, 3.515]"] ;
27 -> 28 ;
29 [label="gini = 0.0\nsamples = 1\nvalue = [1.732, 0.0]"] ;
28 -> 29 ;
30 [label="gini = -0.0\nsamples = 5\nvalue = [0.0, 3.515]"] ;
28 -> 30 ;
31 [label="X[5] <= -1.331\ngini = 0.352\nsamples = 38\nvalue = [38.104, 11.247]"] ;
27 -> 31 ;
32 [label="gini = 0.0\nsamples = 2\nvalue = [0.0, 1.406]"] ;
31 -> 32 ;
33 [label="X[6] <= 2.964\ngini = 0.326\nsamples = 36\nvalue = [38.104, 9.841]"] ;
31 -> 33 ;
34 [label="gini = 0.312\nsamples = 35\nvalue = [38.104, 9.138]"] ;
33 -> 34 ;
35 [label="gini = -0.0\nsamples = 1\nvalue = [0.0, 0.703]"] ;
33 -> 35 ;
36 [label="X[3] <= 1.679\ngini = 0.5\nsamples = 12824\nvalue = [6382.487, 6423.977]"] ;
0 -> 36 [labeldistance=2.5, labelangle=-45, headlabel="False"] ;
37 [label="X[3] <= -0.358\ngini = 0.5\nsamples = 12300\nvalue = [6178.109, 6138.592]"] ;
36 -> 37 ;
38 [label="X[8] <= -1.666\ngini = 0.471\nsamples = 143\nvalue = [98.725, 60.451]"] ;
37 -> 38 ;
39 [label="X[4] <= 0.059\ngini = 0.442\nsamples = 18\nvalue = [5.196, 10.544]"] ;
38 -> 39 ;
40 [label="X[5] <= 2.232\ngini = 0.21\nsamples = 4\nvalue = [5.196, 0.703]"] ;
39 -> 40 ;
41 [label="gini = 0.0\nsamples = 3\nvalue = [5.196, 0.0]"] ;
40 -> 41 ;
42 [label="gini = -0.0\nsamples = 1\nvalue = [0.0, 0.703]"] ;
40 -> 42 ;
43 [label="gini = 0.0\nsamples = 14\nvalue = [0.0, 9.841]"] ;
39 -> 43 ;
44 [label="X[6] <= 0.66\ngini = 0.454\nsamples = 125\nvalue = [93.529, 49.907]"] ;
38 -> 44 ;
45 [label="X[5] <= 0.742\ngini = 0.429\nsamples = 112\nvalue = [91.797, 41.472]"] ;
44 -> 45 ;
46 [label="gini = 0.461\nsamples = 98\nvalue = [71.013, 40.066]"] ;
45 -> 46 ;
47 [label="gini = 0.119\nsamples = 14\nvalue = [20.784, 1.406]"] ;
45 -> 47 ;
48 [label="X[5] <= 0.695\ngini = 0.283\nsamples = 13\nvalue = [1.732, 8.435]"] ;
44 -> 48 ;
49 [label="gini = 0.495\nsamples = 3\nvalue = [1.732, 1.406]"] ;
48 -> 49 ;
50 [label="gini = 0.0\nsamples = 10\nvalue = [0.0, 7.029]"] ;
48 -> 50 ;
51 [label="X[3] <= -0.357\ngini = 0.5\nsamples = 12157\nvalue = [6079.384, 6078.141]"] ;
37 -> 51 ;
52 [label="X[7] <= 0.099\ngini = 0.436\nsamples = 93\nvalue = [25.98, 54.828]"] ;
51 -> 52 ;
53 [label="X[4] <= 0.228\ngini = 0.479\nsamples = 71\nvalue = [25.98, 39.363]"] ;
52 -> 53 ;
54 [label="gini = 0.36\nsamples = 45\nvalue = [8.66, 28.117]"] ;
53 -> 54 ;
55 [label="gini = 0.477\nsamples = 26\nvalue = [17.32, 11.247]"] ;
53 -> 55 ;
56 [label="gini = 0.0\nsamples = 22\nvalue = [0.0, 15.464]"] ;
52 -> 56 ;
57 [label="X[1] <= 0.831\ngini = 0.5\nsamples = 12064\nvalue = [6053.404, 6023.314]"] ;
51 -> 57 ;
58 [label="X[8] <= 2.171\ngini = 0.5\nsamples = 10732\nvalue = [5319.028, 5385.063]"] ;
57 -> 58 ;
59 [label="gini = 0.5\nsamples = 10698\nvalue = [5312.1, 5363.975]"] ;
58 -> 59 ;
60 [label="gini = 0.372\nsamples = 34\nvalue = [6.928, 21.088]"] ;
58 -> 60 ;
61 [label="X[5] <= -0.876\ngini = 0.498\nsamples = 1332\nvalue = [734.376, 638.251]"] ;
57 -> 61 ;
62 [label="gini = 0.47\nsamples = 192\nvalue = [133.365, 80.836]"] ;
61 -> 62 ;
63 [label="gini = 0.499\nsamples = 1140\nvalue = [601.01, 557.415]"] ;
61 -> 63 ;
64 [label="X[7] <= 1.439\ngini = 0.486\nsamples = 524\nvalue = [204.378, 285.385]"] ;
36 -> 64 ;
65 [label="X[5] <= -0.851\ngini = 0.478\nsamples = 472\nvalue = [171.47, 262.189]"] ;
64 -> 65 ;
66 [label="X[8] <= 0.538\ngini = 0.499\nsamples = 61\nvalue = [32.908, 29.523]"] ;
65 -> 66 ;
67 [label="X[2] <= 0.148\ngini = 0.473\nsamples = 38\nvalue = [25.98, 16.167]"] ;
66 -> 67 ;
68 [label="gini = 0.398\nsamples = 29\nvalue = [25.98, 9.841]"] ;
67 -> 68 ;
69 [label="gini = -0.0\nsamples = 9\nvalue = [0.0, 6.326]"] ;
67 -> 69 ;
70 [label="X[2] <= 0.144\ngini = 0.45\nsamples = 23\nvalue = [6.928, 13.355]"] ;
66 -> 70 ;
71 [label="gini = 0.221\nsamples = 18\nvalue = [1.732, 11.95]"] ;
70 -> 71 ;
72 [label="gini = 0.335\nsamples = 5\nvalue = [5.196, 1.406]"] ;
70 -> 72 ;
73 [label="X[4] <= -0.08\ngini = 0.468\nsamples = 411\nvalue = [138.561, 232.666]"] ;
65 -> 73 ;
74 [label="X[4] <= -0.081\ngini = 0.475\nsamples = 386\nvalue = [136.829, 215.796]"] ;
73 -> 74 ;
75 [label="gini = 0.344\nsamples = 68\nvalue = [12.124, 42.878]"] ;
74 -> 75 ;
76 [label="gini = 0.487\nsamples = 318\nvalue = [124.705, 172.918]"] ;
74 -> 76 ;
77 [label="X[8] <= 0.812\ngini = 0.169\nsamples = 25\nvalue = [1.732, 16.87]"] ;
73 -> 77 ;
78 [label="gini = 0.0\nsamples = 24\nvalue = [0.0, 16.87]"] ;
77 -> 78 ;
79 [label="gini = 0.0\nsamples = 1\nvalue = [1.732, 0.0]"] ;
77 -> 79 ;
80 [label="X[5] <= 2.12\ngini = 0.485\nsamples = 52\nvalue = [32.908, 23.196]"] ;
64 -> 80 ;
81 [label="X[2] <= -0.466\ngini = 0.468\nsamples = 47\nvalue = [32.908, 19.682]"] ;
80 -> 81 ;
82 [label="gini = 0.0\nsamples = 3\nvalue = [0.0, 2.109]"] ;
81 -> 82 ;
83 [label="X[8] <= -2.976\ngini = 0.454\nsamples = 44\nvalue = [32.908, 17.573]"] ;
81 -> 83 ;
84 [label="gini = 0.0\nsamples = 2\nvalue = [3.464, 0.0]"] ;
83 -> 84 ;
85 [label="gini = 0.468\nsamples = 42\nvalue = [29.444, 17.573]"] ;
83 -> 85 ;
86 [label="gini = -0.0\nsamples = 5\nvalue = [0.0, 3.515]"] ;
80 -> 86 ;
}